digraph Tree {
node [shape=box, style="filled, rounded", color="black", fontname="helvetica"] ;
edge [fontname="helvetica"] ;
0 [label="age <= 25.5\ngini = 0.816\nsamples = 14\nvalue = [2, 3, 3, 2, 1, 3]\nclass = Dance", fillcolor="#ffffff"] ;
1 [label="gender <= 0.5\ngini = 0.48\nsamples = 5\nvalue = [0, 3, 0, 2, 0, 0]\nclass = Dance", fillcolor="#def6bd"] ;
0 -> 1 [labeldistance=2.5, labelangle=45, headlabel="True"] ;
2 [label="gini = 0.0\nsamples = 3\nvalue = [0, 3, 0, 0, 0, 0]\nclass = Dance", fillcolor="#9de539"] ;
1 -> 2 ;
3 [label="gini = 0.0\nsamples = 2\nvalue = [0, 0, 0, 2, 0, 0]\nclass = HipHop", fillcolor="#399de5"] ;
1 -> 3 ;
4 [label="age <= 30.5\ngini = 0.716\nsamples = 9\nvalue = [2, 0, 3, 0, 1, 3]\nclass = Gospel", fillcolor="#ffffff"] ;
0 -> 4 [labeldistance=2.5, labelangle=-45, headlabel="False"] ;
5 [label="gender <= 0.5\ngini = 0.375\nsamples = 4\nvalue = [0, 0, 0, 0, 1, 3]\nclass = Piano", fillcolor="#ee7bbe"] ;
4 -> 5 ;
6 [label="gini = 0.0\nsamples = 3\nvalue = [0, 0, 0, 0, 0, 3]\nclass = Piano", fillcolor="#e5399d"] ;
5 -> 6 ;
7 [label="gini = 0.0\nsamples = 1\nvalue = [0, 0, 0, 0, 1, 0]\nclass = House", fillcolor="#8139e5"] ;
5 -> 7 ;
8 [label="gender <= 0.5\ngini = 0.48\nsamples = 5\nvalue = [2, 0, 3, 0, 0, 0]\nclass = Gospel", fillcolor="#bdf6d5"] ;
4 -> 8 ;
9 [label="gini = 0.0\nsamples = 3\nvalue = [0, 0, 3, 0, 0, 0]\nclass = Gospel", fillcolor="#39e581"] ;
8 -> 9 ;
10 [label="gini = 0.0\nsamples = 2\nvalue = [2, 0, 0, 0, 0, 0]\nclass = Classical", fillcolor="#e58139"] ;
8 -> 10 ;
}